-0.18208661914719595,0.525368700206061,-0.29667304058746224,-0.29698576350103373,0.421593901663994,0.5367067926646513,-0.716510804759644,-0.3788406256294842,-0.19439507969667172,-1.1516728352313312,-0.13924700295530185,0.23227441258278222,-0.11002385404134694,-0.6733053864392129,-0.13486698324623245,0.29267821954099676,0.35239745976482495,-0.10676948427229249,0.24333989114546523,-0.025961227810861322,0.15614613228476162,-0.3619424389245423,-0.11580946312372178,0.24253761179887154,0.07899770108877084,-0.406846362979,0.2058970052954379,0.3102893872448672,0.44025232185951707,-0.126638129484879,0.4821303612253489,0.08640272683880347,-0.28015273653885425,0.05584755806515961,-0.3222153997961222,-0.3356185805044673,-0.5481593294260596,0.041418251862211625,0.08336077439049287,0.02731768740921212,0.46060168690393916,-0.24870470397363117,-0.4028004872051652,-0.1506548154890204,0.18266049409781776,-0.18938558983653697,0.3352957877724478,-0.47834833505269503,0.1348580448440132,0.6371209997408636,0.26849883854377365,-0.20694792860917532,-0.4013324792799719,-0.655506517831201,1.4078610010102177,0.37260325696847046,-0.16105975744977877,0.023176455582248755,-0.16901438216183962,0.0027190361570740068,0.20203533481412977,-0.261052028207126,0.24192660032570062,0.7681634990904106,0.027538912636919384,-0.22773326949714714,-0.18470150066185873,-0.10728844423798657,-0.38267328807128626,-0.38656167072197983,-0.39424879894449827,-0.3725470174048097,0.2774902877978609,0.006858758469152461,-0.13829860762361415,-0.12898106288925124,-0.3569395429055237,-0.4580130884305,-0.5447005320850067,-0.3414850696246341,0.1329140744706743,-0.3841077404786612,-0.4279171144869682,0.013696783623582162,0.10116462114588445,0.5097549024753907,0.1517434646973009,-0.4529360243824928,-0.08494379375487196,-0.7738017787273729,-0.026605529013420642,0.19161838366767975,0.043546689981394146,-0.32762705338605885,0.649356520869478,-0.2903431263554791,0.41171087997425515,0.36024234999441057,-0.5145209672167441,-0.06389082828659752,0.022911257265419007,-0.07967138678623906,0.6653385702107267,0.258366822852005,0.15274001183899727,0.2401976972647522,0.3031814365462559,-0.02073631677127642,0.16915744660935492,-0.4332580001917354,-0.48337328244367994,-0.4917846593202088,-0.27296998701519964,-0.5213037364519002,0.06682287586924711,0.4209725708049753,-0.7375914970702466,0.33469340857931595,0.15173778773865632,-0.0406173628868549,0.5971207010604315,0.2089373746854531,0.11686137976896836,-0.34740675975080226,-0.042345231693828714,-0.05576910057978832,-0.3188856675170092,0.2706006259833693,0.1312006931356096,0.3509449086194023,0.09846199395281693,0.2733429683294803,0.19606264889219632,0.09038659032802707,-0.4394269519288418,0.22394703673867195,-0.391381936630825,0.1433962138706405,-0.3377315895471041,-0.0686316888805969,0.29032885443838086,0.28152973468694953,0.21159915023429127,-0.4201731336095711,0.4398369514952703,-0.015961353887374085,0.8131304335469659,-0.4464519007461324,-0.18167905769109086,0.22545345108723966,0.4600081810712207,-0.3814063835785953,0.1384761600475342,-0.5893262402572063,-0.011430186261531833,0.0682689711960244,-0.2652213307886647,-0.5932040221286347,-0.23901011044850998,0.3401094173459385,0.01603637357085528,-0.13582744391914345,0.45529328915522405,0.1497789218794867,-0.07875753379412403,-0.13472527643270693,0.6960607839756283,0.4272378180143897,-0.19397073592131117,0.46712769346531274,-0.44289475406917395,0.0417519089136237,-0.28008218665494417,-0.06264314081294939,0.4512754989287452,-0.66223850008885,-0.27483160361289205,-0.06556261209920991,-0.6030716357861988,-0.33748668327765724,-0.13149489609629486,-0.16830327873940706,0.2066972165959015,0.058626193573564495,-0.06098888637232907,0.7326427348739585,0.8447796556408951,-0.7616570511596331,0.23645965842024366,0.5158559602852402,-0.5935298111796015,0.3396980391675133,-0.39324452791894066,-0.46270546294290815,0.17841310983713227,0.3959187575122972,0.1536305505403892,0.2144983145633511,0.20138313957753615,-0.41069509218100364,-0.15576644853875046,-0.6341086965360262,-0.5330552252188063,-0.18143544276021134,-0.1419382664354787,0.4604713429926657,-0.5336599099386323,0.5607893804725139,-0.4589649134391316,0.48707497395067784,-0.5687603932044498,-0.08057006534134403,-0.9238048260196111,-0.3530014022982696,1.0605975740656455,-0.29404216095823826,-0.071943610195825,0.3505691843014183,0.0023025285751529477,0.13956199438349015,0.018460114585245907,0.25590903847254864,0.33884459291371494,0.055657232578992195,-0.03684052282395916,-0.6472593002658144,0.4667113633201625,-0.6714828232791284,-0.2847234466322414,0.1249083069493494,-0.05246431275821931,-0.058263025156208015,-0.6142669563373361,0.48664879564201313,-0.2626857181896767,0.5369570374653727,0.3906586259600788,-0.30320082345454336,0.5731043446396528,-0.1878319379130345,0.3730048503589218,-0.09189652116238366,0.0685347650733575,0.14518796730131098,-0.10942417962553633,-0.2932867552836637,0.4704668805964917,0.09019736639859996,0.0031905130760381865,-0.23365380187487036,0.6037141244951857,-0.6780869771592778,0.05685361038585067,-0.019758763614393406,0.2579473220861938,0.1865177942109684,-0.06802303420593438,-0.16572888023861262,-0.12496606960438587,-0.23594123512941256,0.14828238393177676,0.10080041679590636,0.29559278471356326,-0.3454207866694223,0.4530914350347198,-0.031048252507885548,-0.5233430357272044,0.11925766507109617,-0.3655802345081883,-0.33047950736277787,-0.12151149657538442,-0.36817752694660305,-0.46203469515821993,-0.23182200170422823,-0.6514276161155654,0.260626386614898,0.0359895030978405,-0.17001507075903566,-0.04217382191972962,-0.626629482291179,-0.33876341393471154,0.6515071142247357,0.17226521646243054,0.046927421307861386,-0.36366981820566624,-0.1707900832493321,-0.025882951785081508,-0.5843417836048855,-0.34358656204981813,1.09264665520102,0.8387254260115415,0.25859118055075037,-0.0481420129809772,-0.14557271242380576,-0.09651855249591526,0.7233976683323831,-0.17934936130404575,-0.3317150984213026,-0.01977961827510969,-0.32566898614348627,-0.28984267562164545,-0.07785086241425612,0.053351584205356545,0.3997740310496578,0.1903476100446076,0.7431362796393128,-0.32749285460103655,0.04465441394846018,0.15220892036355882,0.05360677993824678,-0.026704793519510113,-0.7304686484623275,0.006370837291533267,0.157650888167297,0.9734885869666519,0.010056728872599917,0.03605936583820852,0.06619225253912882,0.5102881423832385,-0.1918290575231456,-0.06350881583645876,-0.21897156909929105,-0.0012107363899498673,-0.6878872641455995,0.24537746863722978,0.11559726247329384,-0.5183238432968904,0.13774618923488177,-0.17553359207820218,0.01347535515522198,-0.036371968575041165,-0.20988359791065686,0.12699511143243108,-0.4038413451325475,0.49684420392258555,-0.16812098350349322,-0.035934696149555086,0.6034436920064116,0.09200500461961172,0.23835094190931846,-0.13464120159515766,-0.17847715421108334,0.3024740739567209,-0.026689374349111398,-0.10622054043930453,0.3793822964617774,0.3937889624104875,0.039105394669897285,-0.2910534146728074,-0.39132008936297036,0.26879921963541265,-0.08871713494979099,-0.2721494083551051,-0.0838305950606431,-0.2979469523125659,-0.040180626038038465,-0.5062595321338673,-0.11782241969023856,0.3153718467158052,-0.4947344721989212,0.12128238459294374,-0.1455909074674665,-0.2770948084579407,0.48595996484140624,-0.46574617128830786,0.6064044750522559,0.21206750545632996,-0.22414294299958237,0.1292501640046537,0.15607311169391763,0.03141160669187032,-0.06628477703989867,-0.12365930032477246,-0.10855002234418211,0.38125695080716565,0.013427196626769377,-0.06031891296720848,0.1888292318406078,0.3191345301133528,-0.09162682021605821,0.5683567592417166,-0.07897862215221987,-0.5209388080911972,-0.18366804377030238,-0.3075442730235427,0.05741172777369431,-0.6297552691090799,0.7239102617814728,-0.23524565177640752,0.06610795727409464,-0.4794872442511653,-0.4076320526491617,0.6565770500487618,0.13609922308247255,0.7872113646204788,-0.2260721455847933,-0.06304093466643312,-0.2037781198888104,-0.4008389478397354,0.07005634370272847,-0.2292267306075109,-0.07996557348429809,0.08184187034363502,-0.02439239936906331,-0.08570959686774884,0.23707626859525527,0.27232250762080734,0.4586871483769237,-0.9230361833585449,-0.8120979969653539,0.299439012127409,-0.10866037607400332,-0.03207098749881415,-0.09342197130163168,-0.07074169126339509,0.04260504081529454,-0.14073713803212579,-0.3485284929616351,-0.2850689981942233,-0.5803824702119732,0.5856105034765667,-0.9810887685952,0.12811962064382001,-0.46709455834147684,-0.4993110186895072,0.28208043420856904,0.6156134169958909,0.005519279924867027,-0.5422662269412484,0.4301461619587165,-0.11388922734948646,-0.10666523576775494,0.2636720322990179,-0.41588748799531716,-0.06684035556901274,0.7106815589212929,0.3085367511818302,-0.5019591039051052,-0.08222478242775437,-0.301237129845651,0.07083145534934535,0.1388721414228579,0.20737184144459123,0.2700937702564732,-0.559432164056797,-0.20681712048571174,0.4794276147777307,-0.02361759477623655,-0.2429035784366381,-0.8638413430867299,0.19809313671207257,-0.5411348144297311,0.2612153801544507,-0.3190066254456966,0.723475417449859,-0.1202237100842825,0.042139181327326136,0.6712270345651459,-0.15911029696176895,0.3823896501720785,0.25786147187357733,0.2083726863545388,0.8044258722231447,-0.5144595021865268,-0.14143569197492373,-0.26334502113613006,-0.15817278322119688,-0.19294255045862221,0.5634546091275457,-0.33471483065578084,0.25399176508044674,0.4798015431706783,0.11149204480199415,0.31377218817920927,-0.0875476170434367,-0.3909402363580424,-0.005809761816054366,-1.06425068887603,-0.2152729321662985,-0.1251620052045923,0.44031409133343186,0.13706560421352204,-0.37195122456503976,0.17487397521396275,-0.09412852305834349,-0.27816602408630425,0.517676927147175,-0.1360017507351762,-0.47142091333865604,0.5880282151864529,0.1728064646182695,-0.44438805491759964,-0.4196935042995366,0.16851451598965173,0.18202578947928058,0.06304802047202675,-0.0030936160053632368,0.3142604230127105,-0.5414814592698695,-0.17397797501732146,-0.2625240887953723,-0.4474063846670362,-0.14230203548222853,-0.20869659197763146,-0.1088561130235693,-0.06830026995144342,0.17992592502568186,-0.675073836899514,-0.19385295766197572,0.09374665607680399,-0.27570943387071933,0.043777349390954116,-0.017797212525180666,0.022852320552552506,0.3145847794498358,-0.022923091628707405,-0.26042210304534064,0.8141313022774612,-0.029081072294413784,0.05036534388570404,-0.05119227292493753,-0.3758761082521762,0.08911725001152838,0.16757547722323118,0.2899557236482487,0.5050822983549424,0.04034845734640818,0.864711772685051,0.6729437417392475,-0.017343026072071135,-0.21892992288196175,0.25255334007261604,0.4639309807385256,1.0556688352505355,-0.03643034175119802,-0.18905212402530686,-0.08300273340589363,0.3904824569705376,0.3053065945740827,0.07544122487631195,0.23989012839710408,-0.3193228303288041,0.6060892258552095,0.5522739690254812,-0.3282074576940839,-0.11372087003080676,-0.5719249498896295,-0.3894750010773693,-1.098789122485033,0.08209588835498034,-0.4250181878379665,0.2416108893858706,-0.1330550669341884,-0.305475648642632,0.526325814703658,-1.2763217643009397,0.29427774943050594,0.9453220002307723,0.3508483756592458,-0.4539469639103265,0.6047727065179216,0.039702540664701774,0.10270489633689663,-0.11719118454818025,0.216223383249565,0.30551800959467756,-0.07237314814034777,0.524847708146293,0.04240567189383549,0.2091358923455952,0.006447267156772332,0.09122341505642342,-0.051072002667805455,0.37416454996281945,-0.12360234280446426,0.1357197812455579,0.26656340890780394,0.13608282457805831,0.2817152864154253,0.38833953319547093,-0.1627004327182022,0.17706240006291957,0.1784978139654728,0.3601326759684381,-0.317094564070705,0.37221687184434743,-0.09520499078609454,-1.4765078675063517,0.06247306054767479,-0.26114833630155915,0.13017806695410025,-0.3139723603380783,-0.20750295286039375,0.266707705680317,-0.14791888353739163,-0.17418729898466534,-0.12233589970269844,-0.5346751926421021,-0.21621309764148294,-0.3958692150744986,0.28427482914183644,0.26999920465292426,0.09734293802880803,-0.07173060067408141,0.2996879086981246,-0.39002019447357905,-0.10220204703914267,-0.13429263672756706,-0.010587935063732623,0.09384377312396812,0.23368416913719434,-0.5245229850699729,-0.13254751864801162,0.3781468818416204,-0.2725445733981797,-0.15876685177815245,-0.4259207701118061,-0.11136948616413102,-0.29945098904801226,-0.11023220025057158,0.04329361033080231,-0.12682005853256034,-0.19094166439639482,1.3376631962752115,0.34118501807918666,0.16180025353687422,0.6690027990603448,-0.20375135767404753,-0.10861674371446786,-0.12147428775677524,-0.2760566808052117,-0.07835631371682975,0.13374893880862884,-0.425092883872708,0.115647676314804,0.18602316299641347,-0.091553438702003,0.1541674460262488,0.6698361225652807,-0.7070779888905714,0.3073194933111645,0.08145633653677337,-0.17244200445396796,-0.17292846232536824,0.3376851278319914,0.5761562027756343,0.45191474172448876,-0.0922160785887576,-0.24034581077122044,-0.04751773931855885,-0.21847300068282346,-0.044231746956497564,-0.34548067173792346,0.8450763069647235,-0.1317579175444558,-0.18877161022223518,-0.8975480594523871,0.38986750672068715,0.19007091733974563,0.328048887989558,-0.3840721541816479,-0.6033033612196619,-0.16635957025451054,0.4114298402112015,0.4604549541018097,-0.41028768613749594,0.29522657924849055,-0.07648539591740217,0.09182855116504096,-0.037461207904320934,-0.2938143562678293,0.4786090547347982,-0.683346151508218,-0.24145067650068733,-0.4232947562569568,0.5348493172715818,0.1654158375566045,0.0163391996830333,-0.08275581025194259,0.04677551019573045,0.024787696593028298,0.48656596793096696,0.5265115372560464,0.22018011117494243,0.042469417900884404,0.2986250297762554,0.1363152026409224,0.07018511782136364,-0.2409749941147581,0.7212917094854772,0.6125280734230041,0.0885514852151132,0.5405533205277783,-1.0604363990489725,0.22722852603756213,0.175722701404742,-0.4158310338395196,0.20758719122052383,0.08335338736250537,-0.39547684602546035,0.07231082946149502,0.20318453024352462,-0.7242786363105547,-0.44950104053786294,-0.11844464911194216,-0.1971664553755052,-0.043784749584248474,0.25255148290904017,0.04815376479547269,-0.1710169294110195,0.2959807795694255,0.6137302718391979,-0.24498095463114652,0.43323903722921536,-0.06062850864509492,0.17371647623804695,1.1458162800666085,0.7856048301888896,-0.03091051213353004,0.6929390340338717,0.08392591756739039,0.401339088747637,0.46944420767793255,0.3900215538541936,-0.2882992728531047,-0.16577033897726653,-0.3280292617877476,-0.23205043889271057,0.3054700363185916,0.47479997903999654,-0.10097188189025393,0.14576918665475283,0.2804398515204337,0.3656788604704006,-0.26144657829252455,-0.06308352357952017,0.043576391466057934,-0.5480840586258588,0.2586597473334342,-0.4309007879165211,-0.12037533679567154,0.5281551467069315,0.5206864763692399,0.4973522511859038,-0.09775656775084578,-0.34166381838683546,-0.730206918355928,0.27712539097374933,-0.059585971060351246,-0.20638122491777527,0.6180680958967328,-0.08794572450874182,-0.07887905231212972,0.26485903140964795,-0.6700510446129163,-0.5181451597637664,0.07964196523187332,0.36282021735843634,0.1149999204960764,0.028456996077353944,-0.1475061496610571,0.31123879689260947,0.5748826266533135,-0.14387371821396638,-0.5144473403123196,-0.3322028894089493,0.10456064661678437,-0.3577261027623813,-0.48246489704264456,0.08095675912523378,-0.22555039309499508,0.049408737768202884,-0.4832529104845121,0.7950993527263571,-0.1636467884488163,-0.3770826624431263,-0.08411210931494711,-0.02028738423275637,0.2587368240197224,-0.1721121550525144,-0.03511908560635806,0.5956219641097293,0.11609663528290709,0.4034114517480555,-0.0016738027492480972,-0.4746693298838322,-0.41305191003718683,-0.48343651728134135,-0.26039383508606656,-1.4734611911682265,0.38611813461962746,0.4069559293031892,0.21979249470100537,0.17258974410778288,-0.31926165405600365,0.36592972208442504,-0.02899835355086908,-0.8468021367176087,-0.30555098483762233,0.3642452760721392,-0.1656099882952363,0.1520102289445938,-0.34544555772138275,0.250848950199842,-0.17241749752723262,-0.40513059553611636,-0.2623874220581653,0.01008308456922844,0.013839638489954176,0.715617247873483,-0.08905786223529105,0.08462619337262357,-0.23108790407183413,-0.39017877623651853,-0.19285895557993596,0.7543783713653468,-0.3943568915301162,-0.09409892170811976,0.1010490296206116,0.16606273013068062,0.16802170767688757,-0.18898200880859858,0.5365395711229655,-0.3020595318137993,-0.4423951159820434,0.1411286731294273,0.12904884397867186,-0.30633540746651966,-0.35712097223733763,0.030700654328524854,0.00234315024179443,-0.08542276641036571,0.15363237480528244,-0.029209160442196264,-0.3083841278899587,-0.2857065094044017,-0.1116366744543198,0.49256814196844606,-0.33185508769219146,-0.18643517449526711,0.46621460675649856,-0.31536467087607717,-0.5033663264393027,-0.06002280441391718,0.7297716675165435,0.32616857602032273,-0.017661775381917048,0.35317785743451924,0.4333152902304738,0.5506323907972438,-0.044231146317204595,0.045280855445104316,-0.2259052545926939,0.4258094009754002,-0.10361014974047147,-0.44336749586407437,-0.09619294798473674,1.35400172622618,0.6073870550033404,0.5195178432558586,-0.1805024145299937,0.03887188645665271,-0.016000099899373354,-0.06479529958078009,-0.5244991875922117,0.2317416334660702,-0.0624866349169447,0.07894568905795804,-0.1527417871310717,0.0030155781560121434,-0.5826715476272758,0.3487127967415356,-0.1039980570136085,0.37120218950768996,0.4776227259081811,0.10844850563259475,-0.39458002046881935,-0.3781474331115879,0.13469228714382409,-0.5278208907935873,-0.404625193368084,0.19694594023494907,0.7689659709028545,0.31185558111067085,0.6845434920164083,0.19792870089214756,0.09506981985707168,0.13900434098327946,-0.055111819315386584,-0.11565979632152024,0.64856907157936,-0.0004232750477926288,0.5268717927698222,-0.10145230550506257,0.009345194514172029,-0.21373487067010435,0.10940586985805824,0.27658130883638854,-0.1501142348749225,-0.125175325585825,0.016557896240163673,0.24921412537304302,0.40018372337468233,-0.6107865360946486,-0.5254134227136621,-0.47910233278536046,0.5405188025079958,0.0524161549065687,-0.1070150740974662,-0.42249163320746347,-0.565348317978519,-0.3145351383357733,0.5359177767207726,-0.17152601662218583,-0.2820890032441051,0.2291336030960244,0.16736010753857367,-0.923028172856406,0.41545545492270997,-0.16751185556916515,-0.2858299303166838,0.015199221755586039,0.9037136441771304,0.8870758647911882,0.3522535212679632,-0.2531862510821573,-0.3645726941672788,-0.11038772702388543,0.23991460943057788,0.035459034081506795,0.38776322401091196,-0.10766966774519564,-1.001468292563633,0.5660970435741851,-0.12514466693820647,-0.2507610080477669,0.5757257706337358,-0.41786530939875755,-0.7828040980505145,0.23412109889560764,0.1436739606384182,0.07623096747783992,-0.31160159487462896,0.09541838741703,-0.1487449723385111,-0.3082423809475894,0.06579029846062019,0.20407644046945442,-0.11750295140380579,0.3117777128884851,0.5363635636945528,0.34428973655096506,-0.21602634289018074,0.024162221933846734,0.37713980963993493,0.001754275049969865,-0.43079833241159293,-0.2601342703784609,-0.042715573614945476,0.906058996064372,0.06262234534873448,-0.14507216954370508,-0.10212406004368443,-0.49841980023367055,0.0254786845993147,-0.28957535012688956,-0.9576370535204822,0.37903759835695827,0.14816366303564427,-0.3132643308240387,-0.7365794996664466,-0.11944720886620723,-0.08760041868148649,0.7495160646984724,-0.5938744440028368,-0.16682540004241414,-0.4587532643638556,-0.3008933213580492,0.16654396265497487,-0.5238871379457561,0.2851964804741528,0.04757862636358076,-0.10496676087624442,-0.3393380601749864,-0.056382711181329016,0.6679397585060084,0.46219723095207577,0.835028719714393,0.18518611482078434,0.0290560086337475,0.30706278501102807,-0.29605421052638603,0.469243793994977,-0.07081019428309407,1.410866311579881,0.0830144052588456,0.6297198644429056,0.05877085400926088,0.019251893524087266,-0.147019163050108,-0.10676366020253554,0.010153820642210034,0.19264986687936939,0.05892126136574945,-0.09675537165102618,-0.3122813901438796,0.42072526372576463,0.21018286941584025,0.03761856409050832,-0.6806257029601341,-0.04599809435512037,0.049288535767884015,0.2238517538418688,-0.32085999814456445,-0.34573833968119627,0.08038059032954609,0.18358893709449528,-0.39782048328040015,-0.3635301224368684,-0.47463468119842106,-0.2635235038099577,0.15422819096067536,0.15468920989540774,-0.4216080546089568
