0.40586200374153764,0.1478390625376822,0.2448954207282224,0.3390676405449511,-0.20759665405904712,0.11307461517780826,0.20485816967943632,0.03433155916214825,0.18098023705419242,-0.46222418245851743,0.09754454683991888,-0.05228842904406591,-0.36751738113072785,-0.11706660199607273,0.257739169569168,0.256162253170423,0.27197999531463213,-0.171860428772402,0.28815701631813506,-0.0003652694516279118,0.019308613535057875,0.05261788142695097,0.45392567127567784,0.17267844476129365,-0.43617656982322905,0.5506358629615219,-0.38646082606982574,0.03631022813885959,-0.5986239117051566,0.3347079736207626,-0.4342662749989093,-0.2861682267321293,0.20159369100916702,-0.09482548846157147,0.20434605647483434,-0.1331004736358654,0.1271955310101043,1.1026894494565742,-0.42342529709741644,0.4924578390697131,-0.4609546327796814,-0.17492463990081955,0.1223090482509403,0.4092530574880538,0.12489458809560207,0.05593129570901563,-0.17310207390338336,0.3501326184372928,-0.2525435847820357,-0.2517756565678076,0.0865892169819503,-0.09175056793323506,0.30056101657376927,0.897773061179542,0.01326359467119651,-0.3485016460725965,0.049191635100809886,-0.10362994174298881,-0.5428347151311418,0.38254334548328306,0.18975386127060603,0.1837858740795363,-0.06866407863588436,-0.2786855001478386,0.016231791214443687,0.11295168995686158,0.12084042547098525,-0.2524478045310938,-0.33765531981696123,-0.01601476797937016,0.1345634628806684,0.306809621160686,0.33291346353120904,-0.18620358239024257,-0.005206618032416459,-0.16650053180927318,0.3383775851714953,-0.03974053075289759,0.11196190790187827,-0.04667440099834074,0.04026821287939204,-0.13323842734056526,-0.17371311898911557,-0.01874351723238916,-0.28502604638200185,-0.2545746233687644,-0.29491944155404387,-0.08526232258323123,0.7482553859687855,0.08288202539055839,-0.020871650360296132,0.0984208716095771,-0.43788619822669494,-0.40786101781748946,-0.137775609275098,0.353148370099484,0.2964049094080629,-0.02446655476045791,0.020541699503622845,-0.11526061003026823,0.11057678518748348,-0.13999676177410192,-0.1044405121251015,0.4051335771331835,0.48222775771896187,-0.09053325769661284,-0.13766716577741375,-0.5898340217723448,0.040319622229279525,-0.5726589456637525,-0.16986521106676025,-0.024356644525441597,0.11068814731173905,-0.180539221797347,0.5054762201025802,0.038031089491741436,-0.023821910381523894,0.23850990672117872,0.062286660422825865,0.2881129317468339,-0.3064848416430606,-0.05710018631467542,0.052809612984307724,0.1537629210432129,-0.3804439223163502,0.2705865649581398,-0.3856124174801878,-0.10592279767824461,-0.07948078598681546,0.2712633033918438,-0.06424064979156174,-0.06101742132316146,0.010378245985039992,0.17445246592539698,-0.3246445586281424,-0.0837225650450202,-0.08590420340439742,0.2921881982369152,0.610594873460507,0.38212974472389133,0.34004330517735926,-0.33301823601938685,-0.16952927611989702,0.01462218996402145,-0.17997147069202757,0.3463438241902472,0.17199051462797094,-0.02929651440952338,0.014970022175871808,0.23399305879971863,-0.23944399215879003,0.08815156795391373,-0.23313994388271664,0.03143976199658548,0.3672059285611113,0.12695949461150344,0.14238217410368362,-0.253272925960193,0.0488766676484998,0.16682862086358688,-0.33298317002268685,-0.45146842044227253,-0.15542551764942136,-0.012914777714793862,-0.265194407733596,-0.2631427180129442,0.06279856222706257,0.4168315493279173,-0.32726876475318056,0.25571614891338446,0.040292018221853215,0.052865351415440354,0.15200595219189456,0.3618837681087674,-0.07844749975722969,-0.055532662795254054,-0.4047645213468627,-0.22646012913556762,-0.062350979050839195,-0.316398106185865,-0.07362777156335469,0.0065218218617759584,-0.2777116201893789,0.24713915085150517,0.2403268961714649,0.12848638551063285,0.03254174939524879,-0.07225014481484712,-0.030885876701289994,-0.08542489278584277,-0.09353493317311207,-0.3208095088934239,-0.17242479998902505,-0.07932122628702111,-0.20875878463700814,-0.20042945348846947,0.4921013292370604,0.4564318648919666,-0.05039087486579429,-0.18536822889631982,0.3085360148508891,0.23438327173822907,0.08294852916894589,0.6632673380979796,-0.6284219853623682,-0.11438734921646246,0.6395837542961906,0.26970528535919397,0.09660821440358046,0.2716365199174957,0.013293029646923943,-0.0959174083417626,0.5121323164376457,0.38380847345946223,0.8542056132323468,0.28358319249645125,0.2121116097253718,-0.08838967578876317,-0.0409007774324266,-0.0689152980694922,-0.180703502624626,0.15879751495776592,0.033887862630210354,0.4671061580906098,-0.2888259010273348,-0.04328339865822204,-0.004920319906633945,0.2653997341236744,0.028581292841609252,-0.09856664676569703,0.012360457789962328,0.1463954114921156,-0.32356409647782425,0.071316321411584,0.027051126907477484,0.038710497219569096,0.2687623409002693,0.09648307585715041,0.2291840266269545,0.1655204340994681,-0.14655911191620427,-0.4296080790420212,-0.19315804017464397,-0.20175888620722054,-0.02105798096722094,0.08965776570155201,-0.1837552965528346,0.040312426992348105,0.107088044554896,0.3042314682076894,-0.16355809035060873,0.06933203980444409,-0.02864663114900423,0.163426754435527,0.29626676724802103,-0.3149062333162831,0.2988721965878355,-0.4121304802646632,0.09631386096688008,0.21806496626075497,-0.45190299522095484,0.07621565703045216,0.027350964315381247,0.5905971745666031,0.05186584303701217,-0.1657538632118424,-0.015513340875465773,0.03929067767058046,0.2470136413232261,-0.10942026588799621,0.016827852780705085,-0.2268689159213437,-0.40257083697445534,-0.30812041737876594,-0.07774879777551735,-0.07874478153076436,-0.10636969883725625,-0.07197764758027976,0.04601229511198493,-0.09915608914918143,0.26165102363758325,0.22956396650618066,0.4800043818394286,-0.32707489366992554,-0.4117267896750524,-0.1851185025190031,-0.24705185489755976,0.11777956911387809,-0.2586080254644478,0.5185271109395267,-0.13542807477850893,0.13324929006991015,0.2624071139126348,0.04363174622518014,-0.41935526162171244,-0.3933397157877915,-0.07690964001932248,-0.2239357530059576,-0.1338735765328707,0.16023287513718973,-0.17483360992911648,0.02698073250365774,0.3531736148214564,0.6634109648025314,0.0527366543561796,0.19932995069735615,-0.009611980080992987,0.31286884936293397,0.18669363040054726,-0.16218237930087498,-0.11742217298250116,0.43659377546683753,-0.033090868701460184,-0.15812699939762484,0.1079518656974009,-0.3054217539883688,-0.16251895118012938,0.0005386335869393893,-0.13202495926841618,0.27284981136824543,0.00807873585702796,0.20402197228368574,-0.10665551815839353,-0.1426014236196108,-0.01758611900862683,-0.015036957037794337,0.11386076119147208,0.349044178875163,0.16833545202148403,0.3021683273823491,0.11586176245121145,-0.22017250938292277,-0.15839976608431447,0.05575355582579968,-0.1895707142695726,0.10091832344960348,-0.36720370703045085,-0.023835478314242358,0.18518575860971878,-0.32159751959626737,0.2670141001655098,-0.042425911265057265,-0.24673313304497063,0.12804013639033412,-0.20722350713178236,0.3494562205283969,0.5001445169414658,-0.11000048873066894,0.24518696230340897,-0.24503389607758946,0.0934201103252412,0.03899737870131273,0.6226787842127223,-0.36342224899711334,0.15802048450499634,0.21719853095436883,0.25908134155481183,-0.2795646991057093,0.15989282983861094,0.40175669220029986,0.10646900967077133,0.007459502784623893,0.37281085920485035,0.019417220562506197,0.1799646903165652,0.12771953399497718,-0.2509561950178257,0.6673264897053729,0.1155591798496003,0.06452759460258516,-0.23638700218110684,0.2086100566990278,-0.040389672167235054,0.00625066901034783,-0.3025266229262004,0.5818577204196341,0.4849124567774208,-0.11725148860907893,0.17369583024556207,-0.17532620929284,-0.3640670394300165,-0.015939929148187107,0.24499949442180657,-0.12186872097303209,-0.45547570134952875,0.10349788477233429,0.0058499628147663935,-0.18556709288787332,0.156481281377545,-0.23709164805122102,-0.19867217548518126,0.22614281713556317,0.15078755920385817,0.3212656875883779,-0.28408887363897667,0.19707244263662704,0.40515943017485606,0.3758527910929077,0.17461470418765307,0.10670301951023224,0.1707844612949763,0.5508479482599076,0.18928513799501775,-0.13282664898321667,0.19234871145621846,-0.21708041883949453,0.08603947533375421,0.16064115124021067,-0.35021312981380204,-0.4995617978945709,0.3624502690680981,0.22526801188727574,-0.20142736970167693,0.2181174377129545,-0.10467101682958597,0.38154838192732043,0.071464003136569,0.2916365263400963,-0.15905722655369883,0.022593984148335633,-0.15643269379678448,0.5050940686610934,0.15491731355554608,0.20351586608195715,-0.07542350544470253,-0.1863296318029358,-0.24480718711263091,0.1504073612858692,-0.12167699609833145,0.2049860541848804,0.1545380837263896,0.4820702233612707,-0.2031224348368703,0.16155486521491513,-0.1056111828161739,0.1851213931600004,0.007822576126439891,-0.08220496061423313,-0.28708216792608504,0.612358779685142,0.2360201073004757,0.45966232247274935,-0.1442840822555607,0.5269870932183324,-0.009145591044836041,-0.08612616257880024,0.03123732770035877,-0.07975522499916583,-0.10008492138342003,0.2629603772346353,-0.0402736008836082,0.13737080957143907,-0.0014303384582301077,0.544808030486746,-0.49124632686552533,-0.2134533760337744,0.2947405801317026,0.5351997026976958,0.4331433121382855,0.3774980754338748,-0.17589322853390862,-0.0513026949901626,-0.30553527926287766,-0.1977844934245236,0.15480233138624805,-0.5596356293458022,0.23345560906902518,-0.036279640753218725,-0.40324009286575857,-0.2857166310490269,0.1958685427361065,0.02963975395765512,0.08033919120310956,0.09168115468276146,0.3912884291842825,-0.10647638137658567,0.4674985737753641,-0.14220537251674478,0.364730350718974,0.27424664226349815,0.010733408814358063,0.22840202996042794,-0.2082081056743365,-0.6171237028157308,-0.00477733206081416,0.36457467084215056,-0.1434828203816418,0.16450130949327943,0.2573644232119872,0.15191621152412912,-0.15740851543818044,0.04093451009598053,0.2717624226313403,0.05622783233460105,0.2654510840607781,0.13460735211812425,0.11041156337986943,0.16531485884731978,-0.17766737952664538,-0.40488421553505155,-0.3145825849377683,0.15062929213036527,-0.33638828891293543,0.14651816024965467,0.011565664402086999,-0.39657293030568386,-0.059344997088048475,-0.1308785891277029,-0.02220735697903278,-0.5277353774719498,-0.1633654565085163,-0.03163950331093091,-0.555639678831922,0.6773530094624425,0.10349867833693077,-0.4703075896882447,0.09823973868090859,-0.07163524515390333,-0.17436701423665904,-0.014420780411705619,0.37337562867059504,-0.1608353939601675,-0.03453235433126988,0.017334588414528163,0.10395337547553173,-0.32048345629610075,0.3770367839913655,-0.28006915217935874,-0.24438373218065748,-0.22395611474139968,0.2922304629118683,-0.22501382787838844,0.174708591201396,-0.16631121283625433,-0.1338375818744531,-0.17151457020156974,-0.02080858368014027,0.20678072035400444,-0.12302388496395866,0.32327085679284456,-0.3480486035805964,-0.11893723481746138,-0.14367665398816487,-0.4038285899018278,0.38878316876148106,0.20515141640643292,0.614897601015128,0.15841907713721523,-0.5489119587372411,-0.3400286220537663,0.37004915602080174,0.037687945529099987,-0.3877173689094757,0.5920880227134119,-0.28964574489200856,0.018756073155920178,-0.23879665602318592,-0.34962249710978677,-0.1350781861106001,0.4846309975688569,0.18830574307674663,-0.0373956277512002,0.25880791283781124,-0.34237812989045724,-0.4111726620539499,0.07839188698460511,-0.23549532308232693,0.021852618985732108,-0.019528625233202306,-0.054708574285178245,0.025415123848037607,0.41145927497432055,-0.05785135163083876,0.23661330734689498,0.15619202847256983,-0.15719955164938765,-0.18862238435502368,0.22043918685757946,0.06291696285363721,-0.1464919191520253,0.022816418495241894,-0.30175147950713804,0.5702622919303728,-0.1282826269499917,-0.3725139578264027,-0.12893319989336796,0.1578006137697861,-0.27545197879121547,-0.28554308085597446,-0.23903756341456847,0.06433399402873251,0.43991918670515556,0.30062530183326797,-0.36510958317971315,0.061067040183509884,-0.258924009135334,0.26922102767462863,-0.19781408716072366,0.18002238487211078,0.10161207506471681,-0.09987840040587191,-0.47236780825736957,0.21590850403902478,0.04835194334685823,0.5884189843907462,-0.4694385538379103,0.393217540161151,-0.4804907128459141,0.05016930283683694,0.008418956720021893,-0.4098214228020351,-0.1913272096257206,-0.385353379772051,-0.23437181878386676,-0.4188557247142413,-0.022010806397123005,0.1378029184287824,-0.0484083857734252,-0.0402094056851117,0.0767248390700632,-0.08441924292102883,0.13665468168306502,-0.4952269235447189,0.1356875737965975,-0.2501920049699444,-0.18690485872961168,-0.046939512839252906,0.015180457345139717,-0.03334358103546883,-0.027237434232925926,-0.24322806619872556,-0.24291028969167364,-0.20238135477218536,0.004806244095839644,-0.06964375017204469,0.3083905731733799,0.1810808042772402,0.02158594907387894,0.12503893286434672,0.0072362882150005334,-0.4829642021333996,0.20676659187907942,0.00022864713833951544,-0.45361863931703733,-0.04482903239687244,-0.14706406453906065,0.003695046886157666,-0.0005826131287688407,0.2675672408735591,-0.155099398943649,0.25568402611077923,-0.16946860794016572,0.01733055768071392,-0.21711313671517365,-0.07536927763636597,-0.23657143611671186,0.2681098527328144,-0.19881135023403645,0.02340995009567555,0.04164893806578962,-0.4220968317678149,-0.1802581876374368,0.23973491194356136,-0.10063427231066473,-0.5243623262165173,-0.07453588471988672,0.08962581443624298,-0.07429887282016834,0.14529537030531794,0.3272240447822383,0.03942327890852898,-0.4467764253774468,0.006396987755775554,-0.35923484284521295,-0.24550842646429183,-0.3308499900560959,0.08296690805660378,-0.24705580546620548,0.29317578663267746,-0.3151602253366525,-0.20457562564311998,-0.04312902450577263,-0.04171617791167474,-0.23872197910327048,-0.36212629524776285,-0.2956297986163662,0.19391664297908914,-0.18157908886489957,0.16655305097034917,0.1589180834962667,0.511634791845386,-0.20390286850780817,0.04514898085470843,-0.09992851889691476,0.01971886348855979,-0.05558974020467708,0.2879938468290752,0.10014434949461645,-0.2222611636458245,-0.12180141789300938,-0.09233771818124335,0.3144577133873453,-0.4069691479301202,0.17572640614934593,-0.12021931074442507,0.0017539146907135602,0.4890243411814972,0.02222355215834892,-0.16172193457814757,-0.620412144479477,0.15679612944034002,-0.23343375699638366,-0.4268070805295662,0.29904381133183,0.33680865815964717,0.3613173392923377,0.013228791598854149,0.6541763795260493,0.36016047821757585,-0.8594372682100707,-0.20422922104287392,0.17403731021800362,-0.23046599792498812,0.22439262312642624,0.025998144425559717,-0.16285911272738998,-0.3572384137386356,-0.2358770718618366,-0.5512855625260719,-0.07580247771068768,-0.33452187994781263,-0.36763557706061534,-0.046632959957658496,-0.10440247758688936,-0.07196169172740736,0.010586164886016923,0.0733610552983844,-0.1627204468636125,-0.29702346463990487,0.2147252498543402,0.23158753094601492,0.33363013214090453,0.09013757752888449,0.028091613349923394,0.49109219714253205,-0.4000006535329771,0.03231168660175306,-0.4005493092081631,0.187263358600361,-0.6116357214712186,-0.09389160648319793,0.29274769195624406,-0.28236991306957915,-0.1992484741643136,0.05399251909940832,0.07595324355142431,0.004122756434201336,-0.07065880066297947,-0.09467275589138782,0.02585901143743056,-0.21525775634188704,-0.11196607995458566,0.24188165064261902,-0.5943267291076345,0.4885344164216578,0.39799202392734256,0.39281384519212054,0.25077040898056613,-0.18332909952826715,0.19425709466729527,0.045046162511552426,0.040517560313111836,-0.056989670051466074,0.04669164259472682,-0.166266744247709,0.3666262256612117,-0.06321503516714695,0.3072495348875732,0.3543876841856871,-0.3254519699751097,0.47829338398137056,0.28397348618345913,-0.26794988239214584,0.046981402943718845,-0.8014024184722044,-0.19818472218743963,0.028344039242554086,0.32555763796414783,0.7866578554735678,-0.4454332614306662,0.477177163019362,0.24747812390454765,0.2788410471993112,0.18737918815465804,0.14380714553410462,0.8510429093237475,-0.12025186199769453,-0.2996983872658735,-0.20940555029515925,0.20558459902566956,0.02084603024719755,-0.004129822158428937,-0.31696403221447844,-0.21456099309054386,-0.0784272151118448,0.3332580591395863,-0.18333152038732478,-0.09481366374651579,-0.4022452326265603,-0.15323640243941272,0.06514765507615504,-0.562131170933956,0.09427490403639037,-0.18312444802877353,-0.015122545176429738,0.1435823607935935,0.05775706232736711,-0.4612512346044613,-0.2890911327975517,-0.1597143760994779,-0.5407495174273681,-0.5291012484996467,0.2467962449793485,0.03994818777288277,-0.18444665218910156,-0.0482164779089049,0.026961065899510975,-0.36569000739009333,-0.3993842102991621,0.16995007037692592,-0.2815890045649218,-0.18187630067022906,0.526373163490654,-0.3176077816443627,-0.36550616417241055,0.33137734623565596,0.1905026097829674,-0.3148969280460804,-0.4792321077264822,-0.07219628166561018,-0.2888123969941811,-0.12515645807343873,-0.020660299084743688,-0.12843343199947282,0.4390226377343496,0.10374132190794841,0.04012365922156263,-0.21862323686267834,-0.11638970255619668,-0.16920684327494256,-0.24117268510022807,0.14138775190748035,0.03423147036861641,0.394618460098604,0.3745503372542292,-0.5520135029181605,0.0399720049785508,0.026595550151969294,0.007081993267982739,0.3251504187018323,0.07548143371239227,0.3206367652402186,0.17883776905360588,-0.1874182339007282,-0.349939040295219,-0.1628410630363872,-0.05818167489044085,0.24216502923367136,0.29285951708324803,0.054151116024367736,0.0037653146873146293,0.3402508163896854,0.2666778093843786,-0.1126489653184228,0.38886127570359474,0.3452157821440309,-0.5961320482954008,-0.09190998231941538,-0.04484318183193543,-0.1808992640423032,-0.23611298097208244,-0.24754534889201926,-0.28670839776470625,0.1722019903277009,-0.1756533736807654,-0.1727273976290388,0.28927915705486495,0.2800960519223136,-0.1867638929376721,-0.4033924582351088,-0.6411597211364782,-0.16036339158910118,0.15339539521642626,-0.10851914687950309,-0.30919444567937765,-0.04167270564737854,-0.07075441835844128,-0.03596123989077589,-0.15097998170174146,-0.19114989134197893,-0.18705194763072866,0.11081271887210008,-0.9356379716856235,0.059113761860804116,0.2791406680964647,0.11425278262594765,-0.2929211901709693,-0.09183493611326111,0.2722094376273576,-0.3180965879211711,-0.005974875613095538,-0.13455257381808539,0.3866810806181313,-0.0818127441630756,-0.061097111432266184,0.2683262530661843,0.20894387598422037,0.6522480284741105,0.027904509103270365,0.07344962197423374,-0.12603245210136563,-0.16702345728877077,0.23800000474918526,0.016057559428104645,0.4072675654266191,-0.19592143403682266,0.04374395120600908,-0.013782918989778858,-0.25144956258714146,0.14746581249421736,-0.40294454195614926,0.14560192387481546,0.2766917171131012,-0.09916381020277162,-0.15880066511702826,0.1821378418861698,-0.49161053086004863,-0.03850770936425156,-0.0459688921012798,0.45433764793577675,-0.03097479325969033,-0.5778121902210566,0.09172761570358418,0.17165420232820794,0.031154179483376825,0.558434599385724,0.01813500843404325,-0.3181639172733692,-0.18792928951570348,0.15208477352966693,-0.18821415548370396,-0.3272313948113916,-0.06308402219090306,-0.11589497667821638,-0.20056393292493382,-0.06417470851236454,0.45956224639442267,0.035810491438802196,-0.13075436513859884,0.4571007196397443,-0.2752217041930244,-0.6858057831715345,0.08137328400043832,-0.20730942112709225,-0.23639053567207158,0.22753790956249784,-0.10130643375995306,-0.1313013058839574,-0.29184615782479956,0.01873365277093352,-0.2198021890912248,0.3213375232038139,0.1727503569161945,0.23894516680357,0.30310207041243126,-0.3461987529299383,0.047522986224436986,0.0633594762402381,0.21106646714266805,-0.19219074364445105,-0.21901008411870457,-0.2954362494923113,0.29251967101423626,0.02252942705139211,-0.27106925202273446,-0.12339638542700167,-0.24160104112690123,0.27516430101183936,-0.05995025941412569,-0.03046604082122101,0.12040901358755417,0.07349906515148406,-0.251988667852298,-0.32492483445833986,-0.42036302322343777,-0.5758967179063085,0.43968844120049577,-0.1668546938795036,0.11152068214943833,0.056496287888001866,0.2681501036986821,-0.4448392395113439,-0.2330582586849011,-0.47720133581937624,0.20229416491386565,0.13146765503690824,-0.10171340727179332,-0.6445350463940035,-0.22656043302328874,0.396539705731429,-0.40266077145786017,0.1496648147573886,0.39356209148634064,0.16350551560675403,-0.2019281695331919,0.742719775447481,0.45314636414911336,0.33346592667444946,-0.014087967847081617,-0.11892026971080993,0.3287945811022558,-0.35467739976434987,-0.40415090433258105,-0.1358208384542332
